digraph Tree {
node [shape=box] ;
0 [label="X[1] <= 0.5\nentropy = 0.881\nsamples = 50\nvalue = [35, 15]"] ;
1 [label="X[0] <= 0.5\nentropy = 0.811\nsamples = 20\nvalue = [5, 15]"] ;
0 -> 1 [labeldistance=2.5, labelangle=45, headlabel="True"] ;
2 [label="entropy = 0.0\nsamples = 15\nvalue = [0, 15]"] ;
1 -> 2 ;
3 [label="entropy = 0.0\nsamples = 5\nvalue = [5, 0]"] ;
1 -> 3 ;
4 [label="entropy = 0.0\nsamples = 30\nvalue = [30, 0]"] ;
0 -> 4 [labeldistance=2.5, labelangle=-45, headlabel="False"] ;
}